digraph Tree {
node [shape=box] ;
0 [label="X[1] <= -1.161\nentropy = 1.0\nsamples = 1000\nvalue = [502, 498]"] ;
1 [label="X[0] <= 1.401\nentropy = 0.638\nsamples = 254\nvalue = [41, 213]"] ;
0 -> 1 [labeldistance=2.5, labelangle=45, headlabel="True"] ;
2 [label="X[12] <= 2.412\nentropy = 0.277\nsamples = 209\nvalue = [10, 199]"] ;
1 -> 2 ;
3 [label="X[5] <= 0.433\nentropy = 0.236\nsamples = 207\nvalue = [8, 199]"] ;
2 -> 3 ;
4 [label="X[0] <= -2.117\nentropy = 0.06\nsamples = 144\nvalue = [1, 143]"] ;
3 -> 4 ;
5 [label="entropy = 1.0\nsamples = 2\nvalue = [1, 1]"] ;
4 -> 5 ;
6 [label="entropy = 0.0\nsamples = 142\nvalue = [0, 142]"] ;
4 -> 6 ;
7 [label="X[1] <= -1.465\nentropy = 0.503\nsamples = 63\nvalue = [7, 56]"] ;
3 -> 7 ;
8 [label="entropy = 0.314\nsamples = 53\nvalue = [3, 50]"] ;
7 -> 8 ;
9 [label="entropy = 0.971\nsamples = 10\nvalue = [4, 6]"] ;
7 -> 9 ;
10 [label="entropy = 0.0\nsamples = 2\nvalue = [2, 0]"] ;
2 -> 10 ;
11 [label="X[13] <= 0.861\nentropy = 0.894\nsamples = 45\nvalue = [31, 14]"] ;
1 -> 11 ;
12 [label="X[3] <= 1.513\nentropy = 0.206\nsamples = 31\nvalue = [30, 1]"] ;
11 -> 12 ;
13 [label="entropy = 0.0\nsamples = 30\nvalue = [30, 0]"] ;
12 -> 13 ;
14 [label="entropy = 0.0\nsamples = 1\nvalue = [0, 1]"] ;
12 -> 14 ;
15 [label="X[16] <= -1.182\nentropy = 0.371\nsamples = 14\nvalue = [1, 13]"] ;
11 -> 15 ;
16 [label="entropy = 0.0\nsamples = 1\nvalue = [1, 0]"] ;
15 -> 16 ;
17 [label="entropy = 0.0\nsamples = 13\nvalue = [0, 13]"] ;
15 -> 17 ;
18 [label="X[1] <= 1.272\nentropy = 0.959\nsamples = 746\nvalue = [461, 285]"] ;
0 -> 18 [labeldistance=2.5, labelangle=-45, headlabel="False"] ;
19 [label="X[13] <= 1.398\nentropy = 0.633\nsamples = 445\nvalue = [374, 71]"] ;
18 -> 19 ;
20 [label="X[7] <= 1.583\nentropy = 0.463\nsamples = 408\nvalue = [368, 40]"] ;
19 -> 20 ;
21 [label="X[1] <= 0.633\nentropy = 0.336\nsamples = 370\nvalue = [347, 23]"] ;
20 -> 21 ;
22 [label="entropy = 0.179\nsamples = 260\nvalue = [253, 7]"] ;
21 -> 22 ;
23 [label="entropy = 0.598\nsamples = 110\nvalue = [94, 16]"] ;
21 -> 23 ;
24 [label="X[13] <= -1.146\nentropy = 0.992\nsamples = 38\nvalue = [21, 17]"] ;
20 -> 24 ;
25 [label="entropy = 0.267\nsamples = 22\nvalue = [21, 1]"] ;
24 -> 25 ;
26 [label="entropy = 0.0\nsamples = 16\nvalue = [0, 16]"] ;
24 -> 26 ;
27 [label="X[0] <= 1.027\nentropy = 0.639\nsamples = 37\nvalue = [6, 31]"] ;
19 -> 27 ;
28 [label="X[13] <= 1.689\nentropy = 0.33\nsamples = 33\nvalue = [2, 31]"] ;
27 -> 28 ;
29 [label="entropy = 0.918\nsamples = 6\nvalue = [2, 4]"] ;
28 -> 29 ;
30 [label="entropy = 0.0\nsamples = 27\nvalue = [0, 27]"] ;
28 -> 30 ;
31 [label="entropy = 0.0\nsamples = 4\nvalue = [4, 0]"] ;
27 -> 31 ;
32 [label="X[13] <= -2.41\nentropy = 0.867\nsamples = 301\nvalue = [87, 214]"] ;
18 -> 32 ;
33 [label="entropy = 0.0\nsamples = 20\nvalue = [20, 0]"] ;
32 -> 33 ;
34 [label="X[7] <= -0.139\nentropy = 0.792\nsamples = 281\nvalue = [67, 214]"] ;
32 -> 34 ;
35 [label="X[13] <= -1.47\nentropy = 1.0\nsamples = 43\nvalue = [22, 21]"] ;
34 -> 35 ;
36 [label="entropy = 0.881\nsamples = 30\nvalue = [9, 21]"] ;
35 -> 36 ;
37 [label="entropy = 0.0\nsamples = 13\nvalue = [13, 0]"] ;
35 -> 37 ;
38 [label="X[13] <= -1.828\nentropy = 0.7\nsamples = 238\nvalue = [45, 193]"] ;
34 -> 38 ;
39 [label="entropy = 0.787\nsamples = 17\nvalue = [13, 4]"] ;
38 -> 39 ;
40 [label="entropy = 0.597\nsamples = 221\nvalue = [32, 189]"] ;
38 -> 40 ;
}